-7.636051655835426
4.159729562720357
0.44294165114278594
-0.8034916232452048
3.2057299583830328
-1.7600850266442967
-2.2647068476473584
6.7393434226063
3.3257578786290494
3.1115292394217664
0.34356666269230707
-0.07529722161786528
-1.1968282090044453
-8.657303355966684
0.5624302855729513
-5.880405642961368
11.85341972675825
-0.15271948329573812
-0.43839590664906225
-0.887627781130582
-11.518910868290012
-2.675177730801477
-1.885087567301476
6.306143160049073
-0.14111714138314385
-2.870286241529908
-4.450743922511215
-10.755961486971618
-7.455427011601042
5.148887473776792
0.13203565979865525
1.9743845205965356
3.406716601759805
3.6519791665320933
2.70912051559029
6.694413940712038
10.953962129052407
-7.38516722499632
-2.3582967002017057
2.091287015809454
-5.232398505345079
-3.3839579608107906
-0.4562954235857168
4.998405549825591
10.209375953656975
-1.5075449626773287
-6.0108100068399954
-6.7985621685466615
-8.825651599545523
12.027847846411671
-8.164595908439434
-2.2862547658082115
1.4807239092740485
8.961534341166244
0.003976075000733631
0.1944918519274909
0.01914259743598164
0.07576118792611551
-0.17884016234235078
0.8622723539155677
0.2538317050201018
0.17878756571874646
0.12705645609010993
-0.4236977217092513
-0.3354293605421746
0.3649355169823508
0.5016261290021063
0.2207447908875028
0.3355581935956043
0.6639299488284448
0.1331502140144068
0.6047395893109742
0.5405024198767183
0.22348205542340555
-0.022685412074127182
0.4624732254140002
0.32748223792811765
0.37455421238707565
0.46273135422998923
0.8739225700259348
0.6499612435136322
0.8885819221265928
-0.03262669106188318
0.990093276824784
0.3748427358166875
0.351247334431282
-0.03699951690370826
0.3156789902895511
0.07333561800749354
0.022152304583922172
0.4273343089893399
0.18180466143501828
0.3709983716926779
0.7683744600264726
-0.02500389722911192
0.1001260860062416
0.0986869574784657
0.09629425262130784
0.7823465297522088
0.7027945023207809
-0.08772179281152381
-0.8907700847118265
2.9961643886058664
-1.7708475058188673
-1.8543844311513884
0.11561758814710507
1.9204732139880867
-5.497781029496797
1.0094803461458026
3.8365962405872227
-3.1826790430143523
4.499085451749184
0.06579066126053609
-0.9959804775410451
-1.294308572822345
0.5435301794023055
0.9751082088434898
1.2544986860579037
1.8545344706564273
0.12425293585000262
-0.14096919306472874
-1.4393561128486587
2.126459554614846
1.5071336907737267
-2.206897700143874
-0.6149080358956914
-1.2886818200954528
-0.14085600712494548
-1.3365875119272275
2.1063303844019146
-0.16769853047077624
0.21057385519651034
-1.485828687462651
-0.030546452563586058
-1.329547846574576
3.1584587109700206
1.2817859152730704
0.33611161015625185
2.406279657396451
-3.8383094308417163
-0.2979247200043016
0.0301191449801176
-0.20700811955409554
-0.43345905468038004
-0.1691293076177272
-0.49522216140182806
-0.481688275380056
-1.959194386443048
-1.2302140218625124
3.279619266297873
-4.815438492234929
-0.39232163645298307
2.038717165497811
-0.7121039334747269
3.1714083530013064
-2.104830439059582
0.021777238900687636
-1.245297779219764
1.3852677818324775
1.4713127517965594
-0.8572002438661428
2.9842529139928047
2.53936119639945
0.09806831551234982
-5.578448335068786
3.3198805647601
0.9169537514944796
-2.594068374709566
-0.09576669082790917
-1.0735582689911398
-5.537508988879618
0.8812850791384967
3.141865921759599
2.7750051400951334
-1.7415940515665043
0.4532805562666855
-0.8279114918003755
-2.7165393237462054
2.492086259190567
5.296268104798912
3.0736928497562563
-1.6585179259468736
-6.803783799723761
-0.42221642980255536
-0.23605101411962293
-0.079944946505942
-0.22331774467475213
0.33689492904527407
-1.0242007907141781
2.5881740305049394
0.07758851845509068
-3.2209194347175942
0.8639094773407195
1.9687513535206356
-3.904847371229931
-0.8498601511058437
5.132456373718194
-2.226590769000543
2.685780263531703
5.16713606498292
1.7791984131993452
1.9586003854637517
4.8476629401994575
-4.040217794360878
-7.735469501379807
-5.0646168501425635
-2.042572018925843
0.36843742543107716
-9.20875913228191
3.312766828512574
4.925882254957327
5.518039308350054
6.612018054224529
1.7235500013941867
0.11661213886972395
-13.092433069177115
-4.720294840402571
2.495981389314269
2.560676888867281
3.4799466402608488
0.7719365574993782
-3.298160670919561
2.7061151381924784
-2.3485354602506745
-6.4894030722276685
5.370811624290935
0.31836089664936335
0.27446453646763425
-0.08449841938461518
0.33855300172313535
-0.20044735949688122
2.142721821280196
0.1355619043516239
0.15850453634458334
0.6524188377312354
2.4660224851729433
-4.549195970173539
2.3844554284198254
1.425585759562589
4.620220460025516
1.719789586013594
1.2659075998450657
1.08301906244007
1.278966293668143
0.26942812501892077
0.6153755945198331
0.22963065750050765
2.758517190821942
2.5906004469953263
1.880270785072789
-1.8162663552982254
0.9064098168668349
0.8341241024677163
2.0212491262330476
0.0020297835665290926
2.0773385497914374
0.8253795719315058
1.164168268693971
0.736358690753432
4.757922747578757
-2.3220124358251417
-1.0285300415590524
-2.686008184371994
-1.190253701046545
8.390691892331025
1.4600188758172872
-0.20450207736184142
-1.8661467631505673
2.7668106442587965
1.070804968446925
1.3473054579227737
1.8093076520264988
-1.025088478649139
-1.7213630934132302
3.2673313161971898
-0.8433646042211105
-0.2542782294628943
-0.7361371345816982
-0.24948250604588593
-4.474141775747831
7.762382413078251
0.30416975897698784
-2.8989060421727033
1.0261717461382915
-1.2672092876563077
-3.5150430919430726
-1.6241172108703081
2.8659049914122066
-3.2412431027456985
6.988310675566613
1.4086416043952141
4.849154738303553
1.4202947885665205
-6.18040656652229
2.6585972575739367
-1.1000383619349323
1.3888918899901141
-0.0773204104546953
-0.9824868944061953
-2.1335543691113408
-0.9864227993083756
3.0950317602201864
2.0362378180930656
2.9119672375810635
-2.216102830137395
-0.560828660643292
-3.1410357872110173
1.4738983881575631
1.7247247765045632
2.1422704080574726
0.16600453160578144
-3.102248572949328
-0.11778436353265992
0.02114944613663604
0.013374982820763937
-0.536625167359601
-0.4674321858593001
0.4565784693032981
1.347579764799262
-0.7641071871194072
0.6435784468293254
-2.099251257921518
4.566587602584301
6.120797503028898
-1.5420109444894843
-8.821493766488562
-0.7473367716756006
1.3661960131060218
2.433438702172935
-3.554079202196322
0.10732168424031532
-11.569463984106626
-5.204213054614933
-8.462753725496096
-4.125504097156975
-2.063275183721556
29.682979015599923
-9.836311617406963
5.629943958915247
3.675788344294597
4.2211361599638915
3.49533349712767
0.9343805101860965
5.285508180827283
-13.541873216853718
-12.240244529003041
2.568208409668279
5.701346521971605
4.3452058744319055
0.905340447502072
-0.1508922708885043
-2.8444864559268925
-3.201481137356108
6.066530607934832
-0.2912896818194696
-0.15397837683334833
-6.909567949939722E-4
-0.400220775402161
-0.16536365284388582
0.6074225836678669
0.7919215494685106
0.4943700497735313
0.24754549515733598
1.0600814728827699
-0.1686981365509463
-1.1020081167891347
1.1054150075806215
0.5399240706430007
1.136977769858276
0.5694673248356853
-0.2955483497038812
-0.15329393212435444
-0.6684864755326132
0.39728230923545815
1.376278317567288
1.5807885828313022
1.2592200934593856
2.2901401827514407
0.7387361291180348
-0.765948452986224
1.4683666226022172
0.36788306332393494
1.0391778377288723
0.4495362599835762
0.1774335935074793
-0.06488620257872267
0.8871446399561643
-0.36918078391351355
2.067369021428989
-0.7177980014875924
-0.47437347712240835
-0.4225824108940857
-0.47130247281372845
1.8585886024002272
0.28045135310964797
-0.29569140607175676
0.7967465930074349
-0.4525879168941744
0.21856522236979298
0.21038554260338369
0.9667927608136506
-0.11344110048091684
-0.443560619657765
-3.6983326721497045
0.04968846206266942
0.5713437885884722
3.790371301963273
0.10934292481275386
5.643341080904127
-7.42923765896608
5.168896584141601
-0.09131080575922264
-3.8662392596720725
2.1331510317404274
4.43607176387645
0.7778057480020449
-2.543206468788045
4.923563723133015
-2.944396037001214
-6.233120346574711
-4.084312520555249
-0.5675379784229357
4.777674223596247
-3.4381129334102862
-1.4164139575253398
2.1740824937188017
2.3497927569877377
-0.2779645741357315
2.908599245896797
-0.6741161002516438
-1.4944653639568062
-4.404369585863432
-0.3106011660862528
2.29184875474116
3.299345550655578
4.576115864291534
-5.772991774224337
0.6778939269169857
1.091857798363563
-3.6607332746199663
2.5463647122919713
0.21186485412279385
-0.24911081374747532
0.13522445028811675
0.10598987019856744
-0.5249035557670336
-5.966961311402734
1.968773180119278
1.6058570057384896
1.1594090016941954
1.9156098269547899
5.120832699142885
0.6283592431863507
-6.830357336372184
-0.9672377112212688
2.524156962324391
1.949570019160766
-0.042158402393962964
2.099855570381664
5.045659230437816
2.061706891693183
-8.624626902542063
-2.8808934634460726
-3.231656673571971
-1.0558150835719307
4.082164854110864
-4.163040450452814
2.6076530505796494
-2.053093668031624
2.874872636640059
1.5027090880929126
2.2298120836878073
1.1093102675490056
-3.9922627650506946
-3.1681378927966497
3.5966142090130013
3.3141902914911885
1.1447772433922878
-0.692144812658836
-4.513930290952312
0.6551254119049834
1.1007671063885973
3.9270133331575536
-5.997228860058293
-0.23796242839743265
0.35897346293431004
0.4025503231574668
0.3163565328786571
0.10136020715826784
1.277097366075029
2.190533189252626
-0.8132838800910196
-0.6828116990930796
2.8154807409940186
3.3342811704900908
1.0536322079201987
-0.2205293264713487
-0.2022721050261299
0.4959654993978175
1.8765996260301787
0.9836489059793503
1.7557111107246335
-0.08875168012431782
1.7942201656846526
-1.8115524437154635
1.0828825024347786
-0.7134480139343286
1.2851647411407126
2.998120135088183
3.963938272843558
1.2828960085822314
0.7969588199450941
0.5096616249204053
0.9431688087917341
-0.8695580459236949
0.5250433588875483
0.6879532845990903
-1.604084507002006
0.12383186281059756
1.3776194841685292
1.6522269357360664
3.397997791215613
-0.483201133442413
0.14294241871788507
1.6798680320471553
0.7409499855069861
0.005498116081655318
0.8527293335661619
0.7631411791226028
1.0952470372234495
-1.0091646961259124
-0.8811508648724071
-9.431166658626804
1.384491739668358
3.428449327129258
0.8992988186871481
2.4460906438812864
8.200848484313662
-4.17773811840417
-1.482601421889357
1.1049185124107506
-2.4671069330786146
1.194841837755428
1.6495465736613433
-1.4726677928188765
3.1494193031501747
0.05784814986652293
-1.876528722883205
-0.9867447359417766
-2.692970048266993
-0.637266966656597
1.3772217138323744
0.18292617591743898
-1.7242566601933458
-0.007738369306287262
-0.08115843571074621
0.13446581104518643
0.438314020746088
-0.09882457553152436
0.6854784424820856
-1.8840428461814644
5.471092448589287
3.8628745625212444
0.9059774360887622
1.09245012871396
-8.541414141359791
3.4965802919389346
-0.5013910189735052
2.5417786528780937
-6.1145704071566325
0.10134209312976913
-0.3101979291218388
0.42517427102062316
0.24466937016567383
-0.3719591700057943
16.99819112804721
-2.668900972302286
-4.3557508539032685
-6.543861827263182
-3.63303771180409
-7.148997914102734
3.5784847422764927
0.850497902059
2.44431415255882
0.30118097997495585
-1.1343202757769901
-3.6135268807688155
-0.7411726077566443
3.0695984499007714
2.070755200646423
-0.5570136881159703
1.8875704165242377
1.5926747196698814
1.1286406211020161
-2.399564030135408
-2.1983330877811955
-0.012300737507861842
-1.169738880613558
-1.1185296876348672
0.23907588977185976
2.270381774198734
-1.6558719994132238
2.959856218654472
11.205852920577914
-6.514219706661736
-4.907196368344231
-3.894850384750527
-4.232613252988988
7.602051581020395
1.68681438172052
-1.3428419094241424
-1.4457518138976608
0.8709704989832542
0.1630716173582626
-0.22834915383717608
-0.11012524564374641
0.5359800828708708
0.35915279426039964
-2.0918102980572013
1.7233750233573608
0.725550711204157
-0.5420208087720407
1.0189561969383532
5.37554918576007
-2.72650438289041
-1.5721129293646965
1.508986482632005
-1.9549918455470814
-0.653124120496379
0.4784464859829607
-0.387420085572479
3.396644111986621
1.276809574764802
-3.1313794455138506
-0.8212797675270868
-1.294636509011307
0.2766486949663522
1.1806761736513158
0.11134579463650827
-0.6539888776951426
1.105007636745823
-0.046908252211359226
1.2091273427998126
-1.05860613888054
-0.7869251656277936
0.09731144361716973
-3.0991422487080924
2.502857533480463
0.1018239677868818
-1.345740068190825
4.547396299761423
-2.3511285542158142
-1.993312930058054
-0.5477939731457944
2.7782401299508064
0.43889927759170033
-0.1543476583283713
0.14193450373558147
0.3098159382752243
0.0833221046821838
-0.4378892938148744
