-6.04907836206566
-2.6771550865634257
-0.14777012627889655
0.29107628352726406
-6.7831715259540095
-0.10626151340957989
2.632574453764395
-9.081994849798937
3.2562366648401095
-0.47163202209548116
0.15181659965163902
-0.19417953709141034
0.6117110488518518
-0.46441051619013796
0.752341912949632
-6.06977469461998
-0.2090934204444354
-0.7776717017958004
-1.127163446199285
-0.2636227805535927
-0.06499005884770766
-7.7307382942879395
1.2089039966778108
1.441429115053268
1.6771810365983326
2.0216640044382483
0.025620500582542213
-0.8321579412307842
0.04620348428448769
0.07619341426342774
0.1956660198892471
0.35614488035044234
-0.26734277449031724
0.038002584343155454
0.2761085207285845
-2.911627473827398
0.374966141611317
-0.011889180353862045
-0.49672405590816276
0.007576217024684656
0.038008507517153275
-0.2988334912397069
-0.48682558205868703
0.3763211345278264
-0.1840692865407714
-0.4920070782392132
-0.628633184651881
-0.6789982605760146
-0.32739488653027454
-0.29781341546637313
-0.15372764458970026
-0.16227161430077205
-0.023289884300092885
0.17940231690198832
-0.29075247085801514
-0.07128497199480816
-0.37007555756860266
-0.13499474352877505
-0.14174583014554132
-0.36021790382906776
-3.2302277111526663
0.8433288218964942
1.0526237489836578
0.6788583140576105
-2.9975894103680987
0.14615238800599448
-0.8946180724651055
2.334267358988147
1.525643078717002
0.023203071823310575
1.0907777528195417
1.0439953433777276
-0.9626336615126985
-0.5252137907630451
1.021746686994289
0.5115432763703605
0.6233002045250553
0.2446314157257879
-4.229241677549401
1.338020253495163
-1.2622740952878162
-0.308207197360535
-1.0073029544463563
-1.7309978554206766
0.39743369579810883
0.45366039593910096
1.8771366839262413
0.8625113310816844
0.09315699944049027
-1.649213044599353
-1.6315379403342032
-0.6259724446947244
1.7856704014067264
-1.9759368678991145
-0.24999079740534086
1.5590363407492864
0.15381683082766556
-0.249312912742809
0.2969637832159191
0.11509442724275533
0.02868614220597196
-0.2499175633288556
-0.9210531104851107
0.9790779031592397
0.5508292146700804
-1.1932593656779555
0.5849375905121982
1.1793587177104452
-1.4289228553797404
-0.5671663615627192
0.5923911729338117
0.42136884111185763
-0.7685586712220182
0.11529852319605906
-0.07374905086687926
0.19083240176327435
0.3701061734961028
-1.2282474599578943
-0.22976354693504944
-0.3467710614438252
-0.12230135974343836
-0.41660893621790934
0.744088956839012
-0.9768713403615485
0.29590077693745737
0.31254144364942743
0.2544243959232073
-1.2174448701125247
-0.2047353770981618
0.02381942172852039
1.4300560693411932
-0.14154616358197014
-1.0685502214840854
-0.650749744216338
-1.2983956095303404
0.42803317101211646
0.6300396015448613
-1.3192614274074885
0.9535754469322568
-0.33452813793787733
0.008989961255866446
-0.7456930040078035
0.14757898396481167
0.027268512049304184
0.6997053971441148
-2.4917238553269376
0.5767659682685394
0.23511025181060602
0.7655083549100535
0.026667885470772444
1.9247404619158965
-1.331693198025765
-0.3662865337765519
-0.13160130494186426
-0.5714405208247711
-0.4540263086061599
-0.41986466597657646
-0.40031950768151153
-0.24283563650298168
0.17195466271994783
0.7114503511650205
-0.842859888621305
0.10693339651259709
-0.4877216777562361
0.46753597718394685
-0.4420035713997225
0.5955854905683649
-0.1121786486259205
0.5948509583692806
0.20553242973268512
-0.17708964940973193
0.7213732349044577
-0.7281495558103556
-1.706402808056646
0.44841064456265933
0.37202612057059775
0.275884658448227
0.5757245220346622
-0.5885099836901314
1.8931946543091347
0.2818928131379165
1.6079669694911256
-3.6904130275350706
-0.5246929904798916
-0.19426468259548543
0.1043667883587565
-0.16273516735721902
0.6586358308847425
11.589651773426382
-2.942771912779561
-2.4763027032890266
-2.2714257702948717
-3.178660488821773
-8.684226788799043
-0.7956402501696943
4.043720151682046
1.7514549946567588
4.622920790749472
3.052478960811875
-5.2599043064034685
-0.6822593449223215
-0.09831916872818149
0.35837844440545963
0.7965802532661175
3.6522833599601663
2.8253016192999354
0.6080547883083591
-5.863687411180354
11.579862638604368
-5.104006035405127
-4.492277238330099
-4.083727027364528
-2.1792371993814053
-4.436162467005077
-5.267386106065079
12.572076065107908
13.279120776830277
-6.577392660909475
-4.584628734559553
-7.640787492656257
-6.741338987874016
10.4948881959517
-0.28207166100544845
0.2191464904980976
-0.514863215305214
0.2689276862468719
0.1464572179477952
0.17828996854715481
0.09885243587476311
0.12614403738169241
0.21335382229362926
-8.949268410996705
3.0653500471631445
2.609191007017793
0.10499596677640685
3.457290728146782
7.5405048067786495
-2.4995507382918394
0.01351097348410652
-0.745892631763769
-4.107632725378291
-2.6511446632870976
5.975694923806203
1.0207275086752352
2.648313427096012
-4.096138365495705
0.3324847322377733
-2.3960348947985026
-1.9137867468184748
0.009031249028559264
0.1357367173191
-4.877908864409328
3.7778769639642973
1.6434179781662734
-2.6571507723668684
1.7025667454658948
3.3567208691297874
0.5341855040354523
-2.8539683829548514
-8.447282872698743
2.004526047588125
6.376236158330735
0.8774230204830112
-1.1469968588878583
1.2415054983556981
-0.05224310202654139
-3.540660005752863
1.658087322920208
1.3693968239208152
0.007280397214423491
-0.12195918489777186
0.11292185677497925
0.11173096518278221
0.34776625907321157
4.847078588935894
-4.114826320029762
-1.1982141231725616
0.6844191601967846
-0.1302020619783914
2.6526567352724633
0.7479496127479027
0.6074472560535168
-2.1329276923927036
-1.0569991981711355
-1.3557431552513086
-1.2351699667741385
1.4588213305895912
-2.812968574184383
-1.9121077919291105
0.3180174941101519
-0.2745818341738563
-0.5874792117494324
0.02029785350966884
5.716315937631186
-0.7477574211326864
-2.1130098272712865
0.7459856458963866
-0.6653624598056581
0.02647738969330983
0.15788926765552858
3.5485642482268784
-0.29242604795384164
-0.9329010108041941
3.6720053951009586
0.621587821138872
-2.6279037924286897
1.4102444511799879
-2.885083925282346
0.38203277744011116
1.021372160244311
-0.8792164779911622
-0.13502836611390545
-0.2898858017218883
-0.3801442702662931
0.08264376738872144
-0.13491106553188234
0.356779684528123
7.64614716646687
-2.1053608858008075
-1.8966221003243837
-1.1038462959593496
-1.3024187745989713
-0.2131543884670864
1.0501565632282248
0.2681892851534255
0.5060997565754806
-0.3819962770745405
0.4103392828106543
0.36248868354579744
0.03539335406335762
0.009073290414080898
0.29139225853436507
-0.2593457674098205
0.061738118734701995
0.5893032642404437
0.8631946124267416
1.145041665510165
0.5980829489451722
0.5660950747116161
0.24251735253677176
0.04964360042221981
0.29005211417284044
0.9407267864669039
-0.032745717460517715
-0.35206466908717565
0.8511752562556787
0.39648214748962735
0.28396507102761237
-0.23204494365752043
-0.09166487888901455
0.2769235947183494
0.42545868790526525
0.4447331621008052
-0.2947116264300375
-0.14436663458858104
-0.03557349117791117
0.21712181978879866
0.006362348676727618
-0.2609462904218141
-0.6513038776714797
-4.753563403413175
-1.5538365395684928
-0.9506071179211706
0.8785742221403114
6.06063805867022
2.58811860972803
-2.7422008085307277
0.09945188477851243
-1.3328069761554688
0.5499999912110047
1.686008717851541
0.8086491255176836
-0.041104223029782984
0.7340645388258539
2.4167451463587715
-0.9586197272102017
-0.29755883624001195
-3.1603760600803734
-0.43473713648769413
0.27612804501524474
-7.2734692110734365
2.051108351938066
3.673850939611761
3.302768606121846
-0.17633485840337298
1.6501177741944293
3.543250356865519
-7.860316439844912
-8.924890795060152
4.97320551510792
4.399485436711116
2.9157676494789158
4.014263072421517
-7.701458884483034
-0.6314180918136728
-0.9611334974653231
0.41090699320800217
0.6948775446734917
-0.22021080957621186
0.28710315236769524
-0.10666040514973732
0.06983394304834999
0.4083227054771831
9.420107099322719
-0.9208332443708448
-3.82116794026799
-1.9455658668090619
-1.66975451678629
-2.7367285630849647
1.0556249144434233
1.2237855444028691
-0.3844783803243833
1.2258109527156913
-1.0112794017786504
-2.518289664014968
-2.0096239583423134
-1.076366601346008
-1.5826196058168118
4.532826943876684
1.9339972997577928
0.31629393692852625
0.9494056938331682
0.2156252944686049
1.7007661184502478
0.3873563965599704
1.2215995350914877
-1.2882830381992698
-1.0971679103704064
0.3965093478135004
-0.9512402997624142
0.7144418023683117
2.9526929752161206
0.21088115831587273
-2.0499996505042173
-3.2019166269667587
-4.702219825321036
6.697491449305498
-2.64736898233441
4.044944274276231
1.204451363013073
-2.269192994983046
0.5928518574699829
0.0158388558695296
-0.07980938770867989
0.09776097953526776
-0.24893342689848508
8.183383023955598
1.822345063836519
-2.7353423300562847
-3.4391522106238606
-2.999195102914391
-7.831265426790014
4.959061015517473
5.47111331665154
-0.025959511226974822
-2.742629096393266
-0.5626815755649083
0.40683519781068195
-1.5631137591858195
1.6840691326303174
1.5154634101871263
0.34697116441276876
1.4973010556663617
-0.028709414383821887
0.6292892774678898
-3.7240782742331966
3.4960126997630088
-0.9838158401803231
-2.549489924435369
0.14903998294816587
-2.495369568609661
1.631051285658261
1.9027136341680932
0.8948211618756763
1.20483817639826
5.389062670425402
-2.955959264221475
-3.061801079425608
-0.8780741499793259
-0.1611072071861441
-2.9445951522755394
1.4670134568022062
-0.2511998470163323
2.2474241975981175
0.3609843983143843
0.022018663093624737
-0.060971840801108027
5.121214592300378E-4
-0.47096433724118125
5.1988771508526055
-0.04898808164135669
-0.2907732522625355
-1.6344560906918253
-3.5745716721289664
-6.672844125551769
0.7518035555833977
2.232760545407942
1.1596512354769724
2.4666839026366976
0.7019393388005822
-2.2261834342094846
0.7956017558856174
1.1528659387041422
-0.3813300873389235
0.3894329426757955
0.6510293807377677
1.1470699261345898
0.17391308985119824
-2.4496845372399907
2.125828919689139
-3.2030998077965727
-0.3085390900788105
0.3673443366027155
-0.8948069043797838
0.43160160011308407
-0.47158346373978555
0.8087004695594289
1.8193133321068597
-1.43610558953187
-1.1618172204645059
-1.8394749092402236
-1.571921929877554
4.38055655417391
0.471685899252838
-0.4736496885267079
-0.2610869376429702
-0.41744938164205364
-0.02147641168470276
0.36879737405726565
-0.5198253097396665
-0.3970773910881771
-0.07745014597600544
-1.0196643511473356
-3.0253030001866703
1.915020467957734
-1.1070533234203424
3.877813850717533
5.700186047647332
-0.07676528571309867
-1.6178872844552015
-1.3104942780439468
-2.09944417057308
-3.1686510636735843
2.1343022767902227
1.5630970218322489
2.3762503783136077
-1.8399141707242472
-1.1112610449814102
-2.298434527561488
-2.3774476093853725
0.0035012517489977375
5.093136520420326
-5.731339051621519
1.345072163802486
2.511768638947284
1.5914363620099163
2.064132600960618
4.162947465848645
1.1770848137584202
-6.691167843052437
-4.0046499226845835
1.6543781676810976
1.588307629039482
2.9170605835020242
1.2935013793231984
-3.4157051653913193
-0.4390402393405442
-1.2459663439078772
0.7385726193847151
0.5276996341160173
-0.2586883101203882
0.5195939023618408
0.186845295350434
0.3081536684618317
0.12187115330551136
6.119364028614979
-3.5521324501686107
-0.6033618143367134
-0.7733943300995426
-2.736631197628944
-1.3136277802459304
1.550936954838479
-0.12341183200510791
0.24272405203819206
0.40775856149690687
-0.19013058236795538
-3.492550157507568
-1.0280030472081851
0.7687304766816021
-0.941299554731134
0.22738735766404294
2.251678570609747
1.2024048533736726
0.27948892348874305
0.8382143966681058
1.9050614456143808
-3.173589670233882
-0.44897265400811015
-5.479588543638637
0.7990173752286236
-0.8803931584189291
1.090071073356659
5.649025180177319
4.660283779086784
-1.4092889142313216
-0.8966572634824372
-3.7088074452980537
-2.5192944001551307
2.6146700879930274
1.3841436320725595
2.131108395039851
-0.7528104271230561
-3.27092423322639
0.3176957555937214
-0.39357511229372194
-0.07495545908064744
-0.1709688968192435
0.4461712887411017
-0.23936206306065272
-0.22815874165358566
-0.06392962814372424
0.4743849070561706
0.35042175770703105
7.740105479315009
-0.9240847302407886
-2.5074067742807578
-2.4529576002992837
-1.7172727472695108
-1.6734736899016573
0.6502717586962407
-0.6144563433628585
1.690325074421418
0.6470601050941777
-2.4216760263092523
0.2681682843634606
-0.19428656804271957
0.05142950955687485
4.787359565929018
-1.4184358365317493
1.5189263921473228
0.3904402684692712
1.8146128036118276
2.6490430988682214
-0.6124729419630949
-0.43756573606913574
-1.4091051612351624
-0.4662561852530799
-2.0990829400012903
0.6857669548336898
3.011566169864409
0.12701521859615506
0.12627630743960885
0.22474722786567047
-1.0761695780451965
1.485390553722703
-0.42338515000785953
0.29591611217898584
-0.0965600241594197
-0.07645796017418305
-0.0799351474037045
-0.5316049016871567
