-3.7555885639797055
1.535707116443732
4.384231701373391
-1.6211031503337887
-4.544980570164031
-5.209246593900856
0.6081023596399845
1.3129060882663044
0.33906640905042223
-1.7603263704160257
-3.638703365345481
-1.873979559180252
-1.5471195571191252
-3.2477410900243058
-3.269831051472046
-6.310114636378754
0.6159917215771452
0.48724822859770717
0.2905536004873395
-0.795608713170606
-1.3324171520042374
1.5509336720329847
0.0043367174054133074
-0.4687213059096863
0.4891998446427072
-0.17765940945099223
0.6766330005923831
0.99216485221098
0.7274812308839338
0.5107539647097739
0.2663806282103445
0.3979300147478894
-0.704946667807651
0.442575999627221
1.1639894376312323
-3.8679373032211
3.4750013736686736
-2.281554653482297
-2.013380880112245
-2.9728891792852594
-1.3030464626372016
-1.7659561005999116
-0.9614214262617592
9.3174391647598
2.0069587419943073
-1.2479488625068584
-0.9209256974404999
-0.7128901104768708
-0.3469761228385383
3.097860779360334
3.115366383437021
2.4677528034744096
-2.3408606927968862
-2.824201460335863
0.028322286276052957
-0.30984368086446273
0.27344304358016824
-0.23675166814978466
0.0117698878663871
-0.4012333098304914
0.8276265099921509
0.3533404516399038
-0.6891869098232358
1.346641420879151
8.414985332711428
-2.348740363204484
-1.1936562865423637
-2.008570731849977
-3.6494640790051935
0.9117514352002312
0.4056019515785429
-0.37863870228978547
1.133407537999504
-0.7274289847815814
-0.7688559404832369
-0.7376455485385132
-0.23592360865855747
-2.123134397382851
4.255636643236945
-1.514503159702836
0.25801632297958443
1.0147846668880993
0.7285873879088873
0.5613527620361894
1.4854270147602682
0.18567772179306608
-1.330052997354594
0.6864674296971661
0.5514592501909252
0.47658451032581156
1.5033793072827124
0.24854479322377251
-1.4245991341131858
2.4837343207728515
1.2960728270400639
-1.2928886068099603
-2.628619781934017
0.4030868341338935
-0.05494011460601462
-0.15812512569983103
0.21769457603740533
-0.4503879664352692
-0.5419593078980228
-0.47436273753383906
0.2509095740874871
0.39837838879846976
-0.5486162825275593
6.2669891127068675
-3.034861469437109
-2.466932617385511
-1.730197739742289
2.0251905965067807
0.24649506865731813
0.9250339831247438
-0.6285056988497425
2.273612171918363
-1.028698332881082
1.2118822315313704
-1.1473231134315196
-1.5353037219716745
-3.414691775280381
4.016651947516838
-2.899623373718938
-0.2700931533668469
-0.2612292581860297
-0.19646999069364948
3.049067310252395
0.18408653721539392
3.445245954363382
-4.226656144540711
-3.531469203278
0.5283202909602253
3.157827057053403
1.3099345710771124
-0.4292207814924869
-2.0738526021222117
-1.2448561653912324
-0.6180130399759588
-2.2647464614502755
4.021440291930393
0.0717737342293595
-0.0904669216562745
-0.023061506448485144
0.034084173955108585
0.1382740429878378
1.1214973939770099
0.4898490124421389
-0.16088785178734005
0.830518149859245
-0.6972194773322913
-1.200776461343968
0.5627328431435271
0.7760366437870415
0.9662229211207946
1.4905972498882958
0.10318318089815613
0.1713228306053545
0.4562207411533458
0.9241146871643744
0.1481808800014767
1.9335042338835864
0.5796612375016073
2.1717595080935372
1.5941277576128883
-3.1937342061961718
-0.3210672889806541
0.3016920890981959
0.273084981761904
-0.9904593917652974
-0.2421641901123708
-0.49081842651231744
-0.19626959787876544
5.163646570881562
0.5302851720840672
-0.45962062805725634
-1.7945695990828023
-0.18995506293222705
0.04119888596745679
5.038056491826141
-1.022556071452059
0.39392624057609893
1.196054936981523
1.202813545044204
0.3970394957075424
0.20126242549329432
1.0420165532604773
-0.5490893750804715
-0.81600885906457
-0.7624385595686158
0.012348186515213917
-0.1709906516935943
-0.9500004589989299
-0.22665623671305152
-7.835056166357479
1.7684787680361407
1.658589735359157
1.5211774122579125
2.451919159075469
-0.7489788355251434
0.27557291143413903
0.32887188215692564
-0.8258023343929091
0.05480606093693756
1.123076430451981
0.5227288065067784
-0.32624523910661773
-0.11911046804493966
-2.3800226926506323
-0.30052087604406336
-1.4666981592262445
-1.0132377543684277
0.01632232847496321
-0.6407081083565335
-0.2296465915519644
0.16737568850012505
0.9724441196428885
0.6706970609640204
0.2070023423652993
-0.21271848382793387
-0.15135539151958924
-0.37300269149152027
-0.31103915473399335
-0.5105093713683827
-0.6138486761030276
1.0789689791420805
-1.0111882121834042
0.1321403138082561
0.10282349327508777
-0.054283008368019144
0.3096763356748382
0.28999528491447335
0.6308750877286595
0.06201434074109022
1.1606751291946555
1.1154985172412533
-1.1012179650928127
-6.410091621196001
0.8032647193157085
1.3584224589997371
1.2920998230013443
2.4015500557663043
0.8143225335951149
0.34466245793135586
-1.2103163005986748
0.12284037188236334
0.10121707294710974
0.8134477936717042
0.9470248097613444
-0.18340254039579387
0.3570332703329551
0.8352307024011784
-1.6102937295680537
0.220384002737909
-1.0075437886815257
0.609036051020327
0.4264321941809639
-0.9508480550476393
0.8331974435854907
2.274080882861243
6.7451988483229375
-3.54537184101316
-1.892628928085678
-2.2571452008311756
-2.81249870669861
3.919836442141105
-3.938666114394313
0.5601287088847211
2.17294774349874
2.4420820695863896
-0.1485864730463998
0.012139663285843151
0.5134607744437687
0.1230529500348325
-0.19680429925858675
-0.2304223495992919
0.3361515706240206
-0.1127915297672555
0.6557520009105866
-0.5594095420675504
3.478549811184349
-0.1762975001784478
-0.18878171906955843
0.1891434120311828
-2.6710832595526357
-0.2726048410669116
-0.20865206709453757
0.6050271821762857
-1.4180571881707509
0.23567409738343434
-0.10365248192290238
-0.6051290176835648
-0.218396013992677
-1.6736254233184533
2.8432964050954803
-1.4173897738057102
0.03813534297161198
-0.155513117482596
0.6349753409886072
-0.2707941976009758
0.5264551532040138
0.2869891946018589
0.8256004863980463
-2.994393316303776
0.8249135850836294
0.13171158622252782
1.6189257957414136
0.4317351226340049
0.8132073757368424
1.2527069327971272
1.152913202939461
-1.264270897334046
-1.617331794974749
0.011391719531087446
-0.2936315766121576
0.05039710379704209
-0.1805489031317916
0.3290019056864522
-0.11596216833297686
-0.688291177772357
-0.018753226875478948
-0.08299212134538637
0.2501793055501731
-1.0405243127482031
0.29086111082337246
0.018695201921430815
-0.39561810901991207
-0.4952046489386188
-0.564193108994299
-0.8888929886591279
-0.10225090466990525
-0.6873610144705432
-0.3854086919110794
-0.2249739534586685
-0.8089624014143981
1.201830269613549
0.4207859659812022
-1.2942167911655083
0.32363637510578613
-0.930803132060753
-0.5406060895953934
-0.7129912607476578
-1.3187634165662387
-0.9175799730700641
-1.4948076112908188
2.8520314174573933
1.3935731425540698
-0.23016018880672498
-0.96594592645674
-0.5468489510811212
-0.6949996890759167
-0.9123287071160088
-0.3223558082728628
-0.17088883819463288
-0.2663554786302277
-0.438757298324289
-0.8700781824016866
-0.6861823853552951
0.0015080878726576258
0.29174221303884496
0.2420417531703188
0.38936623886197436
0.35871405434736886
0.21965104924765072
0.5199341649572766
-0.07810049973644925
-0.9871974090102191
0.6320212829613181
0.35513604931368653
0.522984642013462
-0.15657889548745077
-0.5827957964870976
0.7603774796169268
0.11864352808307159
0.004088688973855085
-0.5781296337241384
0.28926357534991726
-0.4817639466182967
0.47090861696668196
-0.19342985801813767
0.25880420872999965
1.173540180572249
-0.05139139257365705
-0.8117002760500567
-0.4147505115874425
1.2594057155935097
-0.3171438618532317
-0.45232176260130696
-0.24831583542531968
-0.9110967274439011
0.38631150813043447
0.8326088221456348
0.18477966322134554
-0.14527893274181028
0.1860594127306079
-0.4968420160055713
-0.6179054246406926
-0.18917125297157408
1.2967645245004993
0.33231914371818977
0.416816166646038
-0.2061992900164915
0.4316258421159585
-0.4441704848093369
0.38717216493231493
0.4445080680558557
-0.4058566437970237
-2.369582645835798
1.0653907598691101
-6.035592534260107
1.3745505694191174
1.0959428447529376
0.5883315015706271
2.0461412394531044
-0.8201369197411665
-0.33470643227496794
0.16062868278758938
-1.1976098524924594
-0.5483667342608209
1.9110508512179682
-0.28598888709446657
2.105831946648074
1.4119497104524374
-4.564985208750773
-1.3351675226197015
-2.291033220358504
-0.8049940013559654
0.08417655260939431
-0.2181198239001835
0.391423946243442
0.19408514663183316
1.0006988463889763
1.3565187449747944
1.0539019540028902
-0.02437770205167712
0.3535253651872479
-1.9452097876670715
-1.6456681124215788
1.3105192707374536
2.000442814461294
-2.506035533086097
-0.9885672043231639
-8.963627127971551E-4
-0.3941597152093131
0.24641190197397497
-0.15545914131451358
0.11571730312189639
2.391553913285373
1.5751475672734725
0.6731100063172538
0.8635491625543564
-0.8408364783011918
-8.43875687206784
3.577320809990377
2.466550440543199
3.516630374594191
2.4899954107222197
-0.8528875954466277
0.9074659766601643
1.6154166475936185
3.1703128210408478
2.0790831480030136
1.9386971248334668
1.8725792132496355
3.153153381166553
4.5359256842027085
-8.647037604544535
6.846298533063516
-1.5322415359817918
-0.4537181094412801
1.2150603895222158
0.2308096844233196
1.1010054677024885
-0.06934041977756211
2.4109232040802198
6.105711510871172
-1.8173868205400658
-1.1384022191845113
-0.5957658489934606
-0.8110724986830468
3.4698652102542193
-1.005346802904361
-0.17409366028245185
1.0606419542875718
3.3843668448313013
1.0157439182706829
1.4250864006198187
1.2689822420733592
-1.2573620919779402
-1.1892816500116086
0.7930253338066999
0.3018152417472917
-0.8395196829742322
0.0406457341979971
-1.100176463498081
-5.302628096007601
0.8183233383817773
1.2118893383057607
1.1005973553898671
2.342567024134729
0.4266276708404818
-0.10050590522513499
0.8944738103671086
0.0845078522476034
0.20627619446765946
1.59125556365864
0.6699362929718725
-0.11951564963279857
-0.3849348459541217
0.02442460800907191
-1.478300711910499
-0.12559879318869474
1.570184520932499
-0.5625145772825734
-0.6959317706657624
-1.4443738577427447
-1.6022233115454267
5.513944757294602
0.4916882140828562
-0.8118092502158228
-1.8028529275415328
-1.2412857248922315
-1.48689860556604
5.944370872516677
1.229964444837713
-0.6404804774326164
-0.9423828913220907
0.4324376631695884
0.4812391132882177
0.1977817506436825
-0.12013155613375613
0.1366329394798029
-0.3070029874604897
2.021099337840437
-0.17741909317832108
0.2131484066010955
-0.7201607985201698
-1.2603323028536946
-0.3289932387988742
0.4899850019146957
-0.025135489231784734
0.3951964799915332
0.08834339558202482
0.20027012782206138
-0.3875098294054504
7.642674102945116E-4
1.4184454821578978
0.3565753891714719
0.5466314264052022
0.5029691930235413
1.5773415878465642
1.0932915477461738
-5.3272233966042455
0.4382027319331016
-2.08684183827067
-3.066981591473608
-2.309997023252708
-1.7717091850091011
-1.0295767929839168
-1.8651380648740161
11.308216116135267
5.549035563136576
-2.6008330315024297
0.03239045818084226
-0.9946210646961791
-1.348390828936904
-1.5156452871237216
2.9344598850701415
5.8493744332437245
-7.866359155697648
-1.023123238390828
0.10347905028470972
-0.2906689978151348
0.017811041471185438
-0.06605438434910729
0.4213067964109509
0.778197986708994
0.5233061901095261
-0.5080999909138192
0.4229791268970238
-0.2796212644423553
2.1168209928572916
-1.876362319588625
-1.6047962198573613
-0.746808029201542
2.959797178731357
-2.458324662152756
-1.1212440256944416
-0.817063690218618
3.7161006715163296
-1.5766530719740885
3.5899028599890963
-1.2873931838198978
3.3897294764320955
8.766817232720104
-9.19022083033715
3.276497175937192
-2.73548525847164
-0.10080011106165158
-2.016357344479462
-0.04932873596594518
-1.79440832734042
-0.17916324175143844
5.1977437007138985
-4.6546591618841155
-2.3072176754723603
-2.421798303437946
-1.2875586772974132
-2.8818765588033606
15.042842301469687
-2.6289700218996357
2.013348737623426
0.22609258749747488
1.2157770170708724
0.1768926105954217
-0.029673423010237863
-0.16740969549866597
0.07639659272391451
0.22567720483668147
0.5284061941964632
0.7345978123812678
0.3619352071533572
0.14569101222653436
-1.7698056593618554
5.022543988284966
-0.6301295638536901
-1.3469870989083566
-1.1276833342680415
-0.3210578908228649
-0.21440575719868213
-0.8338435485795891
-0.7410616690633323
0.7023098368452405
-0.3434763054563951
0.4091977646971892
0.36295898387380576
0.8026850420559136
0.3715607458048001
0.5683376388347712
2.655785446375332
-1.6602638302804174
-1.8265918625430178
-1.6105233482781123
-1.4986246274284063
-1.7143952339158313
-1.6579793489249093
7.2980003780002605
5.515426154962792
-2.2347015753039714
-1.0709624509450377
-0.9007330147457346
-1.2466377038797467
0.761088109334697
5.307897717149687
2.2718177387814547
-3.6783539524954136
-1.8306349884036432
0.47242316059369277
-0.034337056951796646
-0.2441999096528449
-0.1296697251940718
-0.16447587071546335
